
\data\
ngram 1=168
ngram 2=182

\1-grams:
-2.256832	!	-0.3939002
-2.145222	"	-0.8198689
-1.673608	,	-1.421929
-1.619577	.	-1.435293
-2.001446	/	-0.9959601
-2.48752	1
-2.256832	2	-1.144293
-2.48752	3	-0.7589424
-2.48752	</s>
-99	<s>	-0.2558911
-1.8073	?	-1.29699
-2.48752	AQ0CN00	-0.05252799
-2.145222	AQ0CP00	-0.334612
-2.48752	AQ0CS00
-2.256832	AQ0MS00	-0.6430815
-2.48752	CC	-0.334612
-2.256832	CS	-0.2386875
-2.48752	DA0FP0
-2.48752	DA0FS0	-0.5105795
-2.48752	DA0MP0
-2.48752	DA0MS0	-0.4890795
-2.48752	DI0FP0	-0.09701549
-2.48752	DI0FS0	-0.09701549
-2.48752	DI0MS0
-2.48752	DP3CSN
-2.48752	Faa	-0.06166768
-2.48752	Fat	-0.05873316
-2.48752	Fc	-0.3385837
-2.48752	Fe	-0.2171512
-2.48752	Fh	-0.2914407
-2.48752	Fia	-0.4399259
-2.48752	Fit	-0.783958
-2.48752	I	-0.05626172
-2.256832	NCCP000	-0.05377614
-2.256832	NCCS000	-0.1265107
-2.001446	NCFP000	-0.2670692
-1.673608	NCFS000	-0.470174
-2.145222	NCMP000	-0.04501721
-1.488937	NCMS000	-0.3114696
-1.488937	NP00000	-0.1310526
-2.48752	P00CN00	-0.4735903
-2.48752	PI0MS00	-0.0878758
-2.48752	PP1CS00
-2.48752	PP2CS00	-0.09531143
-2.48752	PP3CSD0	-0.5171348
-2.48752	PP3FSA0
-2.48752	PP3MP00
-2.48752	PP3MSA0	-0.09701549
-2.48752	PR0CN00	-0.373211
-1.528273	RG	-0.3589619
-2.48752	RN
-1.73533	SP	-0.4801801
-2.48752	VMIC3S0
-2.256832	VMIP1P0	-0.08968672
-1.8073	VMIP1S0	-0.286753
-2.145222	VMIP3P0
-1.8073	VMIP3S0	-0.2115798
-2.001446	VMN0000	-0.1860124
-2.48752	VMP00PF
-2.48752	VMP00SF
-2.256832	VMP00SM
-2.48752	VMSP2S0	-0.0878758
-2.48752	VSIP3P0
-2.48752	VSIP3S0	-0.5599761
-2.001446	Z	-0.8365294
-2.256832	a	-0.09036852
-2.48752	aca
-2.48752	acerca_de
-2.256832	ah	-0.3939002
-2.48752	ahi
-2.001446	ahora	-0.7934558
-2.48752	ahí
-2.48752	angular	-0.08410969
-2.48752	anidar
-2.48752	anterior	-0.09531143
-2.48752	aqui
-2.48752	asignar
-2.145222	asistente	-0.5568233
-2.48752	aun
-2.48752	autenticar
-2.145222	b	-0.5109473
-2.48752	bajar	-0.09701549
-2.48752	bien	-0.6832834
-2.48752	campo
-2.48752	casi	-0.8082221
-2.256832	cita	-0.6128144
-2.48752	como
-2.256832	consulta	-0.8119773
-2.48752	consultar	-0.09408096
-2.48752	cu_la
-1.528273	de	-1.415282
-2.48752	deber	-0.09160952
-2.48752	dentro_de
-2.48752	diasdisponibles
-2.48752	diasnodisponibles	-0.5171348
-2.48752	duda	-0.09408096
-1.388642	el	-1.14384
-2.48752	ellos
-2.145222	en	-0.609102
-2.48752	enfocar
-2.48752	enlace
-2.48752	especial
-2.145222	estar	-0.05626172
-2.48752	extra
-2.48752	fecha
-2.48752	formato
-2.48752	funcionar
-2.48752	gracia
-2.48752	gracias
-2.256832	historia	-1.008565
-2.48752	historia3
-2.48752	hu
-2.48752	identificador	-0.08410969
-2.48752	le	-0.5188389
-2.48752	liga
-2.48752	lista	-0.08912394
-2.48752	listo
-2.48752	llevar
-2.256832	lo	-0.06166768
-2.48752	login
-2.145222	mandar	-0.3839276
-2.48752	matr
-2.256832	matricular	-0.09160952
-2.48752	me
-2.256832	medicar	-0.09160952
-2.48752	mismo	-0.8700264
-2.256832	muy	-0.6832834
-2.48752	no
-2.48752	nuevamente
-2.48752	objeto
-2.256832	paciente	-0.09602042
-2.001446	para	-0.512192
-2.48752	pasar
-2.256832	poder	-0.09701549
-2.256832	por	-0.609102
-2.48752	probar
-2.48752	proyecto	-0.09531143
-1.619577	que	-1.075728
-2.48752	query	-0.3809943
-2.256832	querystring
-2.48752	raw_post	-0.08410969
-2.48752	raw_pre	-0.08536869
-2.48752	recursar
-2.145222	recurso	-0.897095
-2.48752	respuesta
-2.48752	resultado
-2.001446	se	-1.147228
-1.893613	ser	-0.8008564
-2.48752	servicio	-0.08410969
-2.256832	si	-0.09602042
-2.48752	simular
-2.48752	sobre	-0.09036852
-2.48752	string	-0.3939002
-2.48752	su
-2.48752	tal_cual
-2.48752	te	-0.09701549
-2.256832	tener	-0.08916047
-2.48752	terminar	-0.8144629
-1.893613	uno	-0.1710895
-2.145222	usar	-0.543311
-2.48752	usuario
-2.48752	vale	-0.08410969
-2.256832	venir	-0.09531143
-2.145222	ver	-0.3884942
-2.001446	y	-0.7618769
-2.48752	ya	-0.8082221
-2.48752	¡	-0.3939002
-2.145222	¿	-1.030722

\2-grams:
-0.223607	! Fat
-0.07104581	" Fe
-0.01670182	, Fc
-0.01618616	. </s>
-0.04605004	/ Fh
-0.03199179	2 Z
-0.08221496	3 Z
-1.910422	<s> ah
-1.910422	<s> ahi
-1.910422	<s> ahora
-0.9395623	<s> muy
-0.6864697	<s> ya
-1.265	<s> ¡
-1.265	<s> ¿
-0.02241495	? Fit
-0.8690293	AQ0CN00 .
-0.2661464	AQ0CP00 /
-0.1083105	AQ0MS00 de
-0.2661464	CC se
-0.5953642	CS el
-1.433301	CS lo
-0.7878785	CS recurso
-0.1592098	DA0FS0 historia
-0.810779	DA0MS0 asistente
-1.88327	DA0MS0 identificador
-0.5996722	DA0MS0 mismo
-0.5996722	DA0MS0 recurso
-1.88327	DA0MS0 servicio
-0.692938	DI0FP0 duda
-0.692938	DI0FS0 lista
-0.8690293	Faa vale
-0.8690293	Fat ahora
-0.5610264	Fc ahora
-1.059121	Fc el
-1.251636	Fc que
-1.897058	Fc te
-0.8245673	Fc ¿
-0.4570615	Fe "
-1.294998	Fe raw_post
-1.471089	Fh b
-0.6331527	Fh diasnodisponibles
-0.6331527	Fh y
-0.5349917	Fia el
-0.4333606	Fia que
-0.0837056	Fit .
-1.772119	Fit ser
-0.8690293	I ?
-0.8690293	NCCP000 ,
-0.6495758	NCCS000 .
-1.294998	NCCS000 por
-0.3752909	NCFP000 /
-1.346151	NCFP000 sobre
-0.4624099	NCFS000 2
-0.8391769	NCFS000 3
-1.993968	NCFS000 de
-1.993968	NCFS000 raw_pre
-0.7700158	NCFS000 ser
-0.993968	NCMP000 anterior
-1.910422	NCMS000 "
-1.910422	NCMS000 ?
-1.072485	NCMS000 de
-1.910422	NCMS000 deber
-0.6268244	NCMS000 que
-0.8379312	NCMS000 se
-1.265	NCMS000 string
-1.622357	NP00000 !
-1.622357	NP00000 2
-0.6514973	NP00000 de
-1.622357	NP00000 tener
-0.7844204	P00CN00 consulta
-0.7844204	P00CN00 le
-0.4675658	P00CN00 usar
-0.692938	PI0MS00 que
-0.692938	PP2CS00 mandar
-0.1560315	PP3CSD0 mandar
-0.692938	PP3MSA0 bajar
-0.8550014	PR0CN00 consulta
-0.6204473	PR0CN00 recurso
-0.7220784	PR0CN00 se
-1.692938	PR0CN00 usar
-2.064006	RG "
-0.9915152	RG ,
-2.064006	RG ahora
-0.9915152	RG bien
-0.8400537	RG casi
-1.093146	RG de
-2.064006	RG el
-2.064006	RG en
-2.064006	RG ser
-2.064006	RG tener
-0.8400537	RG terminar
-2.099478	SP angular
-0.219122	SP el
-2.099478	SP proyecto
-1.454056	SP que
-1.454056	SP query
-2.099478	SP uno
-0.993968	VMIP1P0 en
-0.993968	VMIP1P0 uno
-0.5158705	VMIP1S0 ,
-1.670662	VMIP1S0 consultar
-1.025239	VMIP1S0 que
-1.025239	VMIP1S0 uno
-0.5158705	VMIP3S0 ?
-1.670662	VMIP3S0 de
-1.670662	VMIP3S0 el
-1.025239	VMIP3S0 por
-0.4454558	VMN0000 ?
-0.692938	VMSP2S0 .
-0.6679148	VSIP3S0 cita
-0.2818992	VSIP3S0 el
-0.3433591	Z ,
-0.5232839	Z ?
-0.9689448	Z ¿
-0.692938	a SP
-0.223607	ah I
-0.7580914	ahora NP00000
-0.1709888	ahora RG
-0.692938	angular NP00000
-0.692938	anterior AQ0CP00
-0.1402069	asistente NCCS000
-0.1560315	b NCFS000
-0.692938	bajar VMSP2S0
-0.09756853	bien RG
-0.07104581	casi RG
-0.1200184	cita NCFP000
-0.07104581	consulta NCFS000
-0.692938	consultar VMN0000
-0.01670182	de SP
-0.692938	deber VMIP1S0
-0.1560315	diasnodisponibles AQ0CP00
-0.692938	duda NCFP000
-0.3536305	el DA0FS0
-1.559399	el DA0MP0
-0.3388031	el DA0MS0
-0.1200184	en SP
-0.8690293	estar VMIP3S0
-0.04381638	historia NCFS000
-0.692938	identificador NCMS000
-0.1560315	le PP3CSD0
-0.692938	lista NCFS000
-0.8690293	lo PP3MSA0
-1.237006	mandar VMIP1S0
-0.2661464	mandar VMIP3S0
-0.692938	matricular VMIP3S0
-0.692938	medicar VMIP1S0
-0.06255303	mismo AQ0MS00
-0.09756853	muy RG
-0.692938	paciente NCCP000
-0.1560315	para SP
-0.692938	poder VMIC3S0
-0.1200184	por SP
-0.692938	proyecto NCMP000
-0.5707085	que CS
-0.1884082	que PR0CN00
-0.223607	query NCMS000
-0.692938	raw_post NCMS000
-0.692938	raw_pre RG
-0.05681537	recurso NCMS000
-0.03199179	se P00CN00
-0.07451378	ser VSIP3S0
-0.692938	servicio NCMS000
-0.692938	si CS
-0.692938	sobre SP
-0.223607	string AQ0CN00
-0.692938	te PP2CS00
-0.993968	tener VMIP1P0
-0.993968	tener VMIP1S0
-0.07104581	terminar VMIP1S0
-1.346151	uno DI0FP0
-1.346151	uno DI0FS0
-0.7007283	uno DI0MS0
-1.346151	uno PI0MS00
-1.391908	usar VMIP1P0
-0.1679558	usar VMIP3S0
-0.692938	vale NP00000
-0.692938	venir VMIP3P0
-0.223607	ver VMIP1S0
-0.08221496	y CC
-0.07104581	ya RG
-0.223607	¡ Faa
-0.0423291	¿ Fia

\end\
