
\data\
ngram 1=163
ngram 2=154

\1-grams:
-2.237544	!	-0.7756307
-2.334454	"	-0.001511215
-1.732394	,	-1.222331
-1.538574	.	-1.402222
-2.237544	/	-0.7756307
-2.936514	1.2
-2.936514	2
-2.635484	3	-0.2022724
-1.538574	</s>
-99	<s>	-0.03791945
-1.895121	?	-1.073617
-2.635484	AQ0CP00	-0.2017672
-2.237544	AQ0CS00	-0.3944071
-2.334454	AQ0FS00	-0.5959859
-2.635484	AQ0MS00
-2.158362	CC	-0.116914
-1.474116	CS	-0.1949668
-2.334454	DA0FP0	-0.08923467
-2.334454	DA0FS0	-0.08873056
-1.982271	DA0MP0	0.0009067229
-1.556303	DA0MS0	-0.2171858
-2.936514	DD0MS0
-2.936514	DI0FP0
-2.334454	DI0FS0	-0.001511215
-2.635484	DI0MS0	-0.2027771
-2.237544	Fat	-0.3913558
-1.732394	Fc	-0.2147711
-2.334454	Fe	-0.08822586
-2.237544	Fh	-0.06962392
-2.334454	Fia
-1.895121	Fit	-0.5515197
-1.982271	I	-0.2836876
-2.459393	NCCS000	-0.1122802
-2.936514	NCFN000
-2.158362	NCFP000	-0.121499
-1.706065	NCFS000	0.00851533
-1.982271	NCMP000	-0.3393186
-1.431364	NCMS000	-0.3125306
-1.82257	NP00000	-0.3089535
-1.936514	P00CN00	-0.05398807
-2.936514	PI0MS00
-2.091416	PP1CP00	-0.08118081
-2.936514	PP1CS00
-2.936514	PP2CS00
-2.936514	PP3CSD0
-2.635484	PP3FPA0	-0.198723
-2.635484	PP3FSA0	-0.2032813
-2.091416	PR0CN00	0.00202834
-2.936514	PT00000
-1.706065	RG	-0.07566851
-1.334454	SP	-0.4905211
-2.033424	VMIP1P0	-0.5975124
-1.82257	VMIP1S0	-0.2566109
-1.936514	VMIP3P0	-0.06621242
-1.82257	VMIP3S0	-0.2884567
-2.936514	VMIS3S0
-1.706065	VMN0000	-0.5713915
-2.936514	VMP00PF
-2.334454	VMP00SF	0.002547642
-2.936514	VMSF1S0
-2.334454	VSIP3P0	-0.5964953
-1.982271	VSIP3S0	-0.5888835
-2.334454	Z
-2.334454	a	0.01706003
-2.936514	ac
-2.459393	aca	-0.6000447
-1.982271	ah	-0.9954523
-2.334454	ahi	-0.5934297
-2.635484	ahora	-0.1956574
-2.635484	ahí	-0.1956574
-2.936514	alguno
-2.334454	anidar	-0.001511215
-2.334454	aquí	0.005103827
-2.635484	asistente	-0.2027771
-2.936514	autenticación
-2.936514	autenticar
-2.635484	b	-0.1956574
-2.091416	backend	-0.06832332
-2.936514	bien
-2.334454	campo	0.001021122
-2.936514	casi
-2.635484	cita	-0.2012613
-2.936514	como
-2.936514	con
-2.936514	consulta
-2.936514	consultar
-2.936514	correo
-2.936514	cómo
-2.936514	dar
-2.936514	dato
-1.857332	de	-1.093357
-2.237544	deber	0.003765271
-2.091416	decidir	-0.08067375
-2.635484	dentro_de	-0.1837012
-2.635484	diasnodisponibles	-0.2032813
-1.32373	el	-0.6921065
-1.857332	en	-1.093357
-2.635484	enviar	-0.1956574
-2.936514	esa
-2.936514	ese
-2.635484	especial	-0.2017672
-2.334454	extra	-0.5995395
-2.091416	facilitar	-0.07812955
-2.635484	fecha	-0.2012613
-2.936514	forma
-2.459393	formato	-0.5856696
-2.635484	funcionar	-0.1977036
-2.936514	guardar
-2.635484	hacer	-0.1956574
-2.459393	historia	-0.1164016
-2.936514	ir
-2.936514	le
-2.334454	lista	0.005103827
-2.936514	ll_e
-2.635484	llevar	-0.1992319
-2.334454	lo	-0.2022725
-2.936514	manda
-2.936514	mandar
-2.936514	mando
-2.334454	manejo	0.01286391
-2.936514	mas
-2.635484	matricular	-0.1977036
-2.936514	me
-2.334454	mismo	-0.08923467
-2.936514	necesitar
-2.091416	nos	-0.08118081
-2.936514	o
-2.334454	objeto	0.01286391
-2.091416	para	-0.0641272
-2.635484	por	-0.1837012
-2.091416	porque	-0.06988647
-2.091416	post	-0.07812955
-2.237544	postman	0.0135715
-2.936514	probar
-2.936514	prueba
-1.556303	que	-0.6013435
-2.635484	query	-0.1878973
-2.936514	raw_post
-2.936514	raw_pre
-2.936514	recurso
-2.334454	respuesta	0.005103827
-2.635484	rest	-0.1977036
-2.334454	resultado	0.001021122
-2.936514	saber
-1.936514	se	-1.036337
-1.82257	ser	-0.5088257
-2.936514	servicio
-2.334454	si	0.01130076
-2.635484	string	-0.1878973
-2.936514	sí
-2.936514	te
-2.936514	tener
-2.936514	terminar
-2.936514	udar
-2.158362	uno	-0.05768993
-2.936514	urls
-1.982271	usar	-0.9456122
-2.936514	usuario
-2.033424	venir	-0.9491867
-2.158362	ver	-0.8385139
-2.334454	y	-0.0005000508
-2.635484	ya	-0.1956574
-2.334454	¿	-0.001511215

\2-grams:
-0.07918125	! Fat
-2.092202	" Fe
-0.02632894	, Fc
-0.01703334	. </s>
-0.07918125	/ Fh
-0.4256893	3 Z
-1.304341	<s> ah
-1.522599	<s> ahi
-2.888082	<s> si
-2.888082	<s> ver
-1.522599	<s> ¿
-0.03778856	? Fit
-0.4256893	AQ0CP00 /
-0.2218488	AQ0CS00 para
-0.1249387	AQ0FS00 en
-0.9028106	CC se
-0.9028106	CC ver
-2.95254	CS ,
-1.587057	CS ah
-1.587057	CS ahi
-1.587057	CS ahí
-0.6842467	CS el
-1.368799	CS se
-0.9852768	CS ser
-0.7267193	DA0FP0 fecha
-0.7267193	DA0FS0 historia
-2.444384	DA0MP0 campo
-2.444384	DA0MP0 resultado
-1.504871	DA0MS0 asistente
-0.60206	DA0MS0 backend
-2.870353	DA0MS0 manejo
-2.870353	DA0MS0 objeto
-0.90309	DA0MS0 postman
-2.092202	DI0FS0 lista
-0.4256893	DI0MS0 formato
-0.2218488	Fat ser
-0.4259687	Fc el
-1.328779	Fc ¿
-0.7267193	Fe "
-0.8236293	Fh diasnodisponibles
-0.1383027	Fit .
-0.4771213	I !
-1.078902	I ,
-1.078902	I ser
-0.6017805	NCCS000 .
-0.9028106	NCFP000 /
-0.9028106	NCFP000 llevar
-2.720591	NCFS000 ,
-2.720591	NCFS000 anidar
-0.2552725	NCMP000 que
-2.444384	NCMP000 venir
-0.4259687	NCMS000 .
-1.028029	NCMS000 aca
-2.995292	NCMS000 de
-1.629809	NCMS000 especial
-1.629809	NCMS000 lo
-1.629809	NCMS000 string
-1.238603	NP00000 ?
-0.3357921	NP00000 porque
-0.906401	P00CN00 nos
-0.7514991	PP1CP00 facilitar
-0.4256893	PP3FPA0 ?
-0.4256893	PP3FSA0 matricular
-2.33524	PR0CN00 venir
-2.720591	RG decidir
-0.7533277	RG en
-0.3467875	SP el
-1.726719	SP enviar
-1.726719	SP hacer
-0.90309	SP que
-1.726719	SP query
-1.124939	SP respuesta
-3.092202	SP uno
-0.1249387	VMIP1P0 usar
-0.3357921	VMIP1S0 que
-1.124659	VMIP3P0 dentro_de
-2.490142	VMIP3P0 extra
-1.124659	VMIP3P0 uno
-0.6368221	VMIP3S0 aquí
-1.238603	VMIP3S0 de
-0.6368221	VMIP3S0 el
-0.7533277	VMN0000 el
-1.355108	VMN0000 lo
-0.7533277	VMN0000 para
-0.4522977	VMN0000 post
-2.092202	VMP00SF en
-0.1249387	VSIP3P0 ?
-1.078902	VSIP3S0 cita
-0.1760913	VSIP3S0 que
-2.092202	a SP
-0.1249387	aca AQ0FS00
-0.04575749	ah I
-0.1249387	ahi RG
-0.4256893	ahora RG
-0.4256893	ahí RG
-2.092202	anidar VMP00SF
-2.092202	aquí RG
-0.4256893	asistente NCCS000
-0.4256893	b NCFS000
-0.7514991	backend NCMS000
-2.092202	campo NCMP000
-0.4256893	cita NCFP000
-0.03476211	de SP
-2.189112	deber VMIP1S0
-0.7514991	decidir VMIP1P0
-0.4256893	dentro_de SP
-0.4256893	diasnodisponibles AQ0CP00
-3.102926	el DA0FP0
-3.102926	el DA0FS0
-0.6585413	el DA0MP0
-0.2325726	el DA0MS0
-0.03476211	en SP
-0.4256893	enviar VMN0000
-0.4256893	especial AQ0CS00
-0.1249387	extra AQ0CS00
-0.7514991	facilitar VMIP3S0
-0.4256893	fecha NCFP000
-0.1249387	formato NCMS000
-0.4256893	funcionar VMIP3S0
-0.4256893	hacer VMN0000
-0.6017805	historia NCFS000
-2.092202	lista NCFS000
-0.4256893	llevar VMIP3P0
-0.7267193	lo PP3FPA0
-0.7267193	lo PP3FSA0
-2.092202	manejo NCMS000
-0.4256893	matricular VMIP3S0
-0.7267193	mismo AQ0MS00
-0.7514991	nos PP1CP00
-2.092202	objeto NCMS000
-0.7514991	para SP
-0.4256893	por SP
-0.7514991	porque CS
-0.7514991	post NP00000
-2.189112	postman NCMS000
-0.1497623	que CS
-1.286612	que PR0CN00
-0.4256893	query NCMS000
-2.092202	respuesta NCFS000
-0.4256893	rest NP00000
-2.092202	resultado NCMP000
-0.04139268	se P00CN00
-2.604085	ser VSIP3P0
-0.1597008	ser VSIP3S0
-2.092202	si CS
-0.4256893	string NCMS000
-2.268293	uno DI0FS0
-0.9028106	uno DI0MS0
-0.05115252	usar VMN0000
-0.05115252	venir VMIP3P0
-0.06694679	ver VMIP1S0
-2.092202	y CC
-0.4256893	ya RG
-2.092202	¿ Fia

\end\
