
\data\
ngram 1=281
ngram 2=437

\1-grams:
-2.770833	!
-1.70758	,	-1.837903
-1.738637	.	-1.837903
-2.472471	1	-1.120444
-2.770833	1.2
-2.216412	2	-1.331297
-2.325837	3	-1.062452
-2.770833	4
-2.591649	:	-0.5208852
-2.770833	</s>
-99	<s>	-0.360615
-1.847875	?	-1.617795
-2.591649	AQ0CN00	-0.2509504
-2.325837	AQ0CP00	-0.2555152
-2.325837	AQ0CS00	-0.4817346
-2.770833	AQ0FP00	-0.1106375
-2.770833	AQ0FS00
-2.325837	AQ0MS00	-0.5134811
-2.325837	CC	-0.3972071
-2.216412	CS	-0.6338508
-2.770833	DA00S0
-2.770833	DA0FP0	-0.5169963
-2.770833	DA0FS0	-0.7090529
-2.770833	DA0MP0	-0.6174184
-2.770833	DA0MS0	-0.4517321
-2.591649	DD0FS0	-0.1918826
-2.770833	DD0MS0	-0.4339291
-2.770833	DI0FP0	-0.1106375
-2.591649	DI0FS0	-0.08539587
-2.472471	DI0MS0	-0.5357982
-2.770833	DP3CSN	-0.4192931
-2.770833	DT0CN0	-0.6158853
-2.770833	Fat
-2.770833	Fc	-0.4179203
-2.770833	Fd	-0.2568956
-2.770833	Fia	-0.4484355
-2.770833	Fit	-1.08203
-2.770833	NCCP000	-0.6431622
-2.472471	NCCS000	-0.3779282
-2.770833	NCFN000
-1.994171	NCFP000	-0.3872809
-1.738637	NCFS000	-0.5936074
-2.770833	NCMN000	-0.09074169
-2.591649	NCMP000	-0.1838542
-1.429472	NCMS000	-0.4059875
-1.370474	NP00000	-0.4470531
-2.770833	P00CN00	-0.5096847
-2.770833	P02CS00	-0.1113665
-2.770833	PD00S00	-0.1922348
-2.770833	PD0FS00	-0.4343058
-2.770833	PD0MS00	-0.6174184
-2.770833	PI0CS00
-2.770833	PP1CP00
-2.770833	PP1CS00	-0.2582146
-2.770833	PP1CSO0
-2.770833	PP1MP00
-2.770833	PP2CS00	-0.07352891
-2.770833	PP3CSD0	-0.4329868
-2.770833	PP3FPA0
-2.770833	PP3FSA0	-0.2527425
-2.770833	PP3MS00
-2.770833	PP3MSA0	-0.2574856
-2.770833	PR0CN00	-0.4272602
-2.472471	PT00000	-0.2340882
-1.772087	RG	-0.4578526
-2.770833	RN	-0.306568
-2.770833	SHA1	-0.1088649
-1.994171	SP	-0.6806258
-2.770833	VAIP1P0	-0.1113665
-2.472471	VMG0000	-0.09838415
-2.770833	VMIC3S0	-0.6170663
-2.770833	VMIF1S0
-2.770833	VMIF2S0
-2.591649	VMIF3S0
-2.591649	VMIP1P0
-1.847875	VMIP1S0	-0.4260379
-2.770833	VMIP2P0
-2.472471	VMIP2S0	-0.04069996
-2.325837	VMIP3P0	-0.5728227
-1.678597	VMIP3S0	-0.5053701
-2.591649	VMIS1S0	-0.2467658
-2.770833	VMIS3S0
-2.770833	VMM02P0	-0.1052979
-1.70758	VMN0000	-0.2372913
-2.770833	VMP00PF	-0.6518732
-2.591649	VMP00SF	-0.09989171
-2.325837	VMP00SM	-0.5688901
-2.770833	VMSI2S0
-2.591649	VMSP3P0	-0.04683141
-2.770833	VSIP3P0	-0.3551246
-2.770833	VSIP3S0	-0.7286961
-2.129084	Z	-0.6559716
-1.939744	a	-0.9534972
-2.770833	actualizar
-2.770833	además_de	-0.1076792
-2.770833	ah	-0.5027102
-2.770833	ah_ok
-2.472471	ahora	-0.9536129
-2.770833	ahora_de_la_historia_usuario
-2.591649	ahí
-2.591649	algo	-0.1113665
-2.472471	alguno	-0.06996882
-2.770833	api	-0.1041023
-2.770833	aplicar
-2.770833	aprovechar
-2.770833	aquí
-2.770833	asegurar	-0.1035033
-2.770833	asginado
-2.591649	asignado	-0.6020686
-2.770833	asignar	-0.5195662
-2.472471	asistente	-1.34946
-2.770833	así
-2.770833	aun	-0.9121591
-2.472471	autenticar	-0.8717487
-2.770833	autentificar
-2.770833	automaticamente	-0.1047005
-2.770833	automáticamente	-0.8152491
-2.770833	backend	-0.09563991
-2.591649	bien	-0.6882192
-2.770833	bus_queda
-2.770833	búsqueda
-2.770833	cadena	-0.1041023
-2.591649	campo	-0.3883869
-2.591649	casi	-0.9535518
-2.770833	cifrado
-2.770833	cifrar
-2.591649	cita	-0.7316485
-2.770833	comando
-2.591649	comentar
-2.472471	como	-0.5510978
-2.770833	componente	-0.1106375
-2.770833	con	-0.5171978
-2.770833	consullta
-2.591649	consulta	-0.8658035
-2.770833	consultar	-0.3880832
-2.770833	consutla
-2.770833	criterio
-2.770833	cu_la
-2.325837	cuando	-1.259338
-2.591649	cuándo	-0.1106375
-2.472471	cómo	-0.5980892
-1.80833	de	-1.795951
-2.216412	deber	-0.5902468
-2.770833	decidir
-2.472471	decir	-0.9103621
-2.591649	desarrollar	-0.2503514
-2.770833	desarrollo	-0.09563991
-2.770833	dias	-0.07069777
-2.770833	diasnodisponibles
-2.472471	disponible	-0.6164762
-2.472471	duda	-0.247371
-1.557106	el	-1.326455
-1.891385	en	-1.313078
-2.591649	encripción	-0.1041023
-2.770833	encriptar
-2.770833	enfocar	-0.9188251
-2.770833	enviar
-2.591649	error	-0.09563991
-2.216412	ese	-0.5644932
-2.770833	especial
-2.591649	estan	-0.1100475
-2.770833	estandar
-2.325837	estar	-0.6921628
-2.591649	este	-0.6166798
-2.770833	estándar
-2.770833	facilitar
-2.770833	fecha	-0.1076792
-2.591649	formato	-0.09563991
-2.770833	funcionar
-2.591649	gracia	-0.3922591
-2.770833	gracias
-2.770833	gracias_segán
-2.770833	gracias_veo	-0.6788014
-2.770833	guardar
-2.770833	haber
-2.770833	habrí
-2.472471	hacer	-0.2871322
-2.472471	historia	-1.384176
-2.591649	historia_usuario	-0.5996202
-2.770833	identificador	-0.3802199
-2.770833	identificar	-0.910962
-2.770833	ir	-0.1113665
-2.770833	key	-0.09563991
-2.591649	le	-0.6969764
-2.325837	link	-0.6969764
-2.770833	listar	-0.6123231
-2.770833	listo	-0.6164762
-2.591649	llamar	-0.6885134
-2.770833	llevar
-2.325837	lo	-0.4204013
-2.770833	login	-0.9030986
-2.325837	mandar	-0.3480456
-2.770833	manera
-2.770833	mas
-2.770833	matricular
-2.770833	matrí
-2.591649	me	-0.5208852
-2.472471	medicar	-0.9133531
-2.472471	mismo	-0.7687789
-2.770833	muy	-0.613443
-2.770833	más
-2.591649	médico	-0.8717487
-2.770833	mí
-2.591649	necesitar
-2.472471	no	-1.149274
-2.770833	nombre	-0.9030986
-2.770833	nos
-2.770833	nosotros
-2.591649	numerar	-0.9925343
-2.591649	número	-0.8061886
-2.770833	ok
-2.591649	oye	-0.09319147
-2.591649	paciente	-0.9602178
-2.05641	para	-0.7414949
-2.770833	parecer	-0.1035033
-2.770833	perfecto
-2.770833	pero	-0.1100475
-2.472471	poder	-0.4343058
-2.591649	podria	-0.1041023
-2.325837	por	-0.7602359
-2.591649	porque	-0.3940366
-2.770833	post
-2.591649	pregunta	-0.09959554
-2.770833	preguntar
-2.770833	provechando
-2.770833	pudrir	-0.1109897
-2.770833	put
-1.578836	que	-1.441219
-2.770833	quedar	-0.06522569
-2.770833	query	-0.6020686
-2.770833	qué	-0.4343058
-2.216412	recurso	-1.020639
-2.770833	recurso_rest
-2.770833	referente
-2.770833	regresar	-0.3874834
-2.770833	respetar	-0.1106375
-2.770833	responder	-0.1029034
-2.591649	saber	-0.1035033
-2.129084	se	-1.2221
-2.770833	seguridad	-0.814651
-2.770833	segurido
-2.770833	seguro
-1.891385	ser	-1.372932
-2.770833	servicio	-0.5051586
-2.770833	servidor
-1.994171	si	-0.9585832
-2.770833	similar
-2.472471	simular	-0.8652045
-2.770833	sobre	-0.5171978
-2.591649	social	-0.9175062
-2.770833	string	-0.2422588
-2.591649	su	-0.8730677
-2.770833	suficiente	-0.2568956
-2.770833	suficientres
-2.325837	tal_cual	-1.058287
-2.770833	tambien	-0.1109897
-2.770833	también	-0.8037401
-2.472471	te	-0.4045321
-2.591649	teneis
-2.472471	tener	-0.1044076
-2.770833	terminar	-0.9547458
-2.770833	todo
-2.770833	transcurso	-0.09563991
-2.591649	ultimar	-0.09656071
-2.05641	uno	-0.9909291
-2.770833	url	-0.5027102
-2.770833	urls
-2.216412	usar	-0.4529108
-2.591649	usuario	-1.107219
-2.770833	vacio
-2.770833	vacío
-2.770833	vale
-2.770833	vale_ahora
-2.770833	validación
-2.770833	ve
-2.770833	veo
-2.325837	ver	-0.5154131
-1.994171	y	-1.186314
-2.216412	ya	-0.7679762
-1.994171	¿	-1.316765
-2.770833	él

\2-grams:
-0.006343253	, Fc
-0.006343253	. </s>
-0.03396033	1 Z
-0.02058257	2 Z
-0.03903608	3 Z
-0.1554417	: Fd
-2.261061	<s> a
-1.47246	<s> ah
-1.238152	<s> el
-2.261061	<s> gracia
-1.238152	<s> gracias_veo
-0.8857942	<s> muy
-2.261061	<s> ok
-2.261061	<s> para
-1.238152	<s> se
-1.47246	<s> si
-2.261061	<s> tambien
-1.086791	<s> también
-2.261061	<s> uno
-2.261061	<s> y
-0.9280062	<s> ya
-0.01058113	? Fit
-0.3476274	AQ0CN00 .
-1.341983	AQ0CP00 el
-1.341983	AQ0CP00 para
-0.420614	AQ0CP00 y
-0.1696323	AQ0CS00 ,
-0.6430127	AQ0FP00 no
-0.9847455	AQ0MS00 asignado
-0.4870528	AQ0MS00 de
-0.8519778	AQ0MS00 el
-0.8519778	AQ0MS00 y
-1.995195	CC a
-0.8209258	CC ahora
-0.7613116	CC cuando
-1.995195	CC en
-1.39878	CC para
-1.073827	CC se
-0.8209258	CC su
-1.024172	CS aun
-0.6718941	CS el
-1.71405	CS en
-2.310466	CS estar
-1.71405	CS lo
-2.310466	CS mandar
-1.521865	CS no
-2.310466	CS pregunta
-0.8967289	CS se
-0.5740921	CS ser
-2.310466	CS si
-1.620736	DA0FP0 fecha
-0.1716616	DA0FP0 historia
-2.127313	DA0FS0 2
-2.127313	DA0FS0 3
-0.1539214	DA0FS0 historia
-1.338712	DA0FS0 historia_usuario
-1.338712	DA0FS0 url
-0.1195841	DA0MP0 campo
-2.222796	DA0MS0 api
-0.710654	DA0MS0 asistente
-2.222796	DA0MS0 backend
-2.222796	DA0MS0 campo
-2.222796	DA0MS0 desarrollo
-1.626381	DA0MS0 identificador
-2.222796	DA0MS0 ir
-0.9365026	DA0MS0 login
-0.8897417	DA0MS0 mismo
-2.222796	DA0MS0 parecer
-0.9365026	DA0MS0 recurso
-1.434195	DA0MS0 servicio
-2.222796	DA0MS0 transcurso
-0.4445374	DD0FS0 autenticar
-0.1987653	DD0MS0 número
-0.6430127	DI0FP0 duda
-1.040953	DI0FS0 cadena
-1.040953	DI0FS0 ultimar
-0.6119915	DI0MS0 asistente
-1.898285	DI0MS0 componente
-0.6119915	DI0MS0 nombre
-0.793135	DI0MS0 numerar
-1.30187	DI0MS0 número
-0.5076242	DP3CSN medicar
-0.5076242	DP3CSN médico
-0.1195841	DT0CN0 recurso
-2.261061	Fc además_de
-0.8119861	Fc ahora
-1.339692	Fc como
-1.086791	Fc decir
-1.086791	Fc el
-1.47246	Fc para
-2.261061	Fc pero
-2.261061	Fc porque
-1.155911	Fc que
-2.261061	Fc si
-1.238152	Fc tal_cual
-2.261061	Fc usar
-2.261061	Fc y
-0.9747671	Fc ¿
-0.3476274	Fd link
-0.6347725	Fia cómo
-0.6347725	Fia el
-0.7170135	Fia qué
-0.06756152	Fit .
-2.040953	Fit ?
-1.252352	Fit ser
-0.3604662	NCCP000 ,
-0.4620067	NCCP000 .
-1.819104	NCCS000 .
-1.819104	NCCS000 el
-0.8977353	NCCS000 estar
-0.8977353	NCCS000 este
-0.8977353	NCCS000 medicar
-0.8977353	NCCS000 médico
-1.819104	NCCS000 para
-1.222689	NCCS000 por
-0.4492106	NCFP000 de
-1.30187	NCFP000 dias
-1.898285	NCFP000 disponible
-1.109684	NCFP000 sobre
-0.9769166	NCFP000 tal_cual
-0.836731	NCFS000 1
-0.6344075	NCFS000 2
-0.964174	NCFS000 3
-1.654052	NCFS000 cuando
-1.329099	NCFS000 de
-2.250468	NCFS000 key
-0.964174	NCFS000 ser
-2.250468	NCFS000 simular
-1.076198	NCFS000 social
-1.120134	NCMN000 ,
-1.120134	NCMN000 .
-1.120134	NCMN000 y
-1.120134	NCMP000 ,
-0.5237187	NCMP000 que
-1.598705	NCMS000 ,
-1.364397	NCMS000 .
-0.9382311	NCMS000 ?
-2.387306	NCMS000 como
-2.387306	NCMS000 cómo
-1.213036	NCMS000 de
-1.598705	NCMS000 deber
-2.387306	NCMS000 el
-1.213036	NCMS000 estar
-1.054251	NCMS000 que
-1.012039	NCMS000 se
-2.387306	NCMS000 social
-1.465937	NCMS000 string
-1.79089	NCMS000 te
-1.054251	NCMS000 y
-1.20996	NP00000 ,
-2.315111	NP00000 1
-2.315111	NP00000 2
-2.315111	NP00000 ?
-1.028817	NP00000 bien
-1.20996	NP00000 casi
-0.8029682	NP00000 de
-1.292201	NP00000 el
-1.028817	NP00000 en
-1.52651	NP00000 llamar
-1.52651	NP00000 poder
-1.20996	NP00000 que
-1.393742	NP00000 ser
-2.315111	NP00000 y
-1.133165	P00CN00 consulta
-0.6878827	P00CN00 deber
-1.921766	P00CN00 hacer
-1.000398	P00CN00 le
-1.921766	P00CN00 llamar
-1.921766	P00CN00 necesitar
-0.5464997	P00CN00 usar
-0.6430127	P02CS00 responder
-0.4445374	PD00S00 me
-0.1987653	PD0FS00 listar
-0.1195841	PD0MS00 numerar
-0.3476274	PP1CS00 quedar
-1.040953	PP2CS00 mandar
-1.040953	PP2CS00 que
-0.1987653	PP3CSD0 mandar
-0.3476274	PP3FSA0 ?
-0.3476274	PP3MSA0 hacer
-0.8008253	PR0CN00 consulta
-0.6170437	PR0CN00 recurso
-1.125779	PR0CN00 regresar
-0.8008253	PR0CN00 se
-1.341983	PT00000 pudrir
-0.420614	PT00000 ser
-2.222796	RG ,
-1.048527	RG .
-2.222796	RG bien
-1.434195	RG casi
-0.9889126	RG cuando
-0.9889126	RG de
-1.626381	RG el
-2.222796	RG en
-2.222796	RG historia
-0.8897417	RG no
-1.301428	RG paciente
-2.222796	RG tener
-0.8897417	RG terminar
-1.572432	RN disponible
-1.572432	RN el
-0.651063	RN estar
-0.651063	RN este
-1.572432	RN te
-0.6430127	SHA1 Z
-2.52096	SP SHA1
-1.924544	SP desarrollar
-0.310941	SP el
-1.924544	SP ese
-1.924544	SP hacer
-1.49805	SP paciente
-1.599591	SP query
-1.34669	SP seguridad
-2.52096	SP simular
-2.52096	SP ultimar
-1.107223	SP uno
-1.039207	SP usuario
-0.6430127	VAIP1P0 respetar
-0.9440427	VMG0000 que
-0.9440427	VMG0000 tal_cual
-0.1195841	VMIC3S0 simular
-0.6253018	VMIP1S0 ,
-1.477961	VMIP1S0 .
-2.074377	VMIP1S0 ?
-1.285775	VMIP1S0 asignar
-1.477961	VMIP1S0 consultar
-0.900107	VMIP1S0 de
-2.074377	VMIP1S0 duda
-1.153008	VMIP1S0 el
-1.477961	VMIP1S0 que
-2.074377	VMIP1S0 uno
-1.153008	VMIP1S0 y
-1.040953	VMIP2S0 asegurar
-0.1348702	VMIP3P0 enfocar
-2.180832	VMIP3S0 ,
-0.8055652	VMIP3S0 ?
-1.259463	VMIP3S0 autenticar
-1.075682	VMIP3S0 cita
-1.392231	VMIP3S0 con
-1.157923	VMIP3S0 el
-0.8945381	VMIP3S0 identificar
-1.259463	VMIP3S0 listo
-2.180832	VMIP3S0 por
-2.180832	VMIP3S0 pregunta
-0.9469482	VMIP3S0 que
-0.4445374	VMIS1S0 .
-1.040953	VMIS1S0 a
-0.6430127	VMM02P0 de
-1.975451	VMN0000 ?
-1.975451	VMN0000 automaticamente
-0.8011817	VMN0000 automáticamente
-1.975451	VMN0000 el
-1.975451	VMN0000 en
-1.975451	VMN0000 ese
-1.18685	VMN0000 lo
-1.975451	VMN0000 para
-0.7415676	VMN0000 que
-1.975451	VMN0000 si
-1.975451	VMN0000 te
-0.1080991	VMP00PF a
-0.6430127	VMP00SF el
-1.518074	VMP00SM como
-0.2317802	VMP00SM si
-0.9216586	VMP00SM ¿
-0.9440427	VMSP3P0 en
-0.2523517	VSIP3P0 suficiente
-1.136617	VSIP3S0 cita
-0.7249314	VSIP3S0 el
-0.7716923	VSIP3S0 ese
-1.269385	VSIP3S0 que
-0.4656682	VSIP3S0 uno
-0.3341608	Z ,
-1.523719	Z .
-1.523719	Z :
-0.8338403	Z ?
-1.523719	Z ser
-1.014984	Z ¿
-0.05069485	a SP
-0.6430127	además_de SP
-0.1554417	ah NP00000
-0.4698269	ahora NP00000
-0.2546359	ahora RG
-0.6430127	algo PI0CS00
-0.819104	alguno DI0MS0
-0.6430127	api NCFS000
-0.6430127	asegurar VMN0000
-0.1195841	asignado NCMS000
-0.1554417	asignar VMP00SM
-0.0198026	asistente NCCS000
-0.05568899	aun RG
-0.06234159	autenticar VMP00SM
-0.6430127	automaticamente RG
-0.07080324	automáticamente RG
-0.6430127	backend NCMS000
-0.1872803	bien CC
-0.8247486	bien RG
-0.6430127	cadena NCFS000
-0.2657121	campo NCMP000
-1.187081	campo NCMS000
-0.05032076	casi RG
-0.08810931	cita NCFP000
-0.2733161	como CS
-0.6998099	como NP00000
-0.6430127	componente NCCS000
-0.1554417	con SP
-0.06234159	consulta NCFS000
-0.2226886	consultar VMN0000
-0.02443197	cuando CS
-0.6430127	cuándo PT00000
-0.7455674	cómo NP00000
-0.2368325	cómo PT00000
-0.006932187	de SP
-0.7575017	deber VMIP1S0
-1.546103	deber VMIP2S0
-0.259809	deber VMIP3S0
-0.05568899	decir VMIP3S0
-0.3476274	desarrollar VMN0000
-0.6430127	desarrollo NCMS000
-0.819104	dias AQ0FP00
-0.1195841	disponible AQ0CP00
-1.040953	duda NCFP000
-0.4445374	duda NCFS000
-2.56987	el DA00S0
-0.9775516	el DA0FP0
-0.4512108	el DA0FS0
-1.648501	el DA0MP0
-0.3540053	el DA0MS0
-1.54696	el NP00000
-0.02142652	en SP
-0.6430127	encripción NCFS000
-0.05568899	enfocar VMP00PF
-0.6430127	error NCMS000
-0.5495225	ese DD0MS0
-0.651063	ese PD00S00
-0.651063	ese PD0MS00
-0.6430127	estan VMIP3P0
-1.643013	estar VAIP1P0
-0.4687433	estar VMIP3P0
-0.356719	estar VMIP3S0
-0.5533817	este DD0FS0
-0.3190735	este PD0FS00
-0.6430127	fecha NCFP000
-0.6430127	formato NCMS000
-0.2226886	gracia NCFP000
-0.09722479	gracias_veo NP00000
-1.245073	hacer VMIP3S0
-0.6486574	hacer VMIS1S0
-0.6486574	hacer VMN0000
-0.6710593	historia NCFP000
-0.1269069	historia NCFS000
-0.1195841	historia_usuario NP00000
-0.2226886	identificador NCMS000
-0.05568899	identificar VMN0000
-0.6430127	ir VMM02P0
-0.6430127	key NCMS000
-0.09722479	le PP3CSD0
-0.09722479	link NCMN000
-0.1195841	listar VMIP1S0
-0.1195841	listo AQ0MS00
-0.09722479	llamar VMIP3S0
-0.5076242	lo PP3FSA0
-0.5076242	lo PP3MSA0
-0.05568899	login NCMS000
-0.3190735	mandar VMIP3S0
-1.341983	mandar VMN0000
-1.341983	mandar VMSP3P0
-0.1554417	me PP1CS00
-0.05568899	medicar VMIP1S0
-0.08065946	mismo AQ0MS00
-0.1348702	muy NP00000
-1.421164	muy RG
-0.06234159	médico AQ0MS00
-0.03188744	no RN
-0.05568899	nombre NCMS000
-0.04589736	numerar VMIP1S0
-0.07080324	número NCMS000
-0.6430127	oye NP00000
-0.05032076	paciente NCCP000
-1.546103	para NP00000
-0.09702802	para SP
-0.6430127	parecer VMN0000
-0.6430127	pero CC
-0.1987653	poder VMIC3S0
-0.6430127	podria NCFS000
-0.08193053	por SP
-0.2226886	porque CS
-0.9440427	pregunta NCFP000
-0.9440427	pregunta NCFS000
-0.6430127	pudrir VMIS1S0
-0.2049347	que CS
-0.4682062	que PR0CN00
-0.819104	quedar VMIP1S0
-0.1195841	query NCMS000
-0.1987653	qué DT0CN0
-0.04182404	recurso NCMS000
-0.2226886	regresar VMIP3S0
-0.6430127	respetar VMG0000
-0.6430127	responder VMIP3S0
-0.6430127	saber VMN0000
-1.176631	se NP00000
-0.05744252	se P00CN00
-0.07080324	seguridad NCFS000
-1.176489	ser VSIP3P0
-0.05004087	ser VSIP3S0
-0.1554417	servicio NCMS000
-0.1113927	si CS
-0.9151096	si NP00000
-0.06234159	simular VMN0000
-0.1554417	sobre SP
-0.05568899	social AQ0CS00
-0.4445374	string AQ0CN00
-1.040953	string NCMS000
-0.06234159	su DP3CSN
-0.3476274	suficiente AQ0CP00
-0.03903608	tal_cual RG
-0.6430127	tambien VMSP3P0
-0.07080324	también NP00000
-1.187081	te P02CS00
-0.2657121	te PP2CS00
-0.9440427	tener VMIP1S0
-0.9440427	tener VMIP2S0
-0.05032076	terminar VMIP1S0
-0.6430127	transcurso NCMS000
-0.9440427	ultimar VMIP1S0
-0.9440427	ultimar VMIP3S0
-1.933047	uno DI0FP0
-1.144446	uno DI0FS0
-0.08868498	uno DI0MS0
-0.1554417	url NP00000
-0.197165	usar VMIP3S0
-1.572432	usar VMN0000
-0.03396033	usuario NCMS000
-0.1554417	ver VMIP1S0
-0.02909929	y CC
-0.4129238	ya NP00000
-0.3438045	ya RG
-0.02142652	¿ Fia

\end\
