
\data\
ngram 1=198
ngram 2=157

\1-grams:
-1.582755	,	-1.368709
-1.622263	.	-1.331933
-2.245513	/	-0.7756767
-2.467361	1	-0.134432
-1.622263	</s>
-99	<s>	-0.3064146
-1.865301	?	-1.10798
-2.467361	AQ0CP00	-0.4746467
-2.099385	AQ0CS00	-0.2063987
-2.944483	AQ0FP00
-2.342423	AQ0MS00
-1.90309	CC	-0.03008337
-1.60206	CS	-0.61595
-2.342423	DA0FP0	-0.2995469
-2.245513	DA0FS0	-0.07437894
-2.041393	DA0MP0	-0.09427758
-1.830539	DA0MS0	-0.07061747
-2.467361	DD0MS0
-2.944483	DI0FP0
-2.245513	DI0FS0	-0.125321
-1.944483	DI0MS0	-0.1395704
-2.944483	DP3CSN
-1.582755	Fc	-0.05503115
-2.245513	Fh	-0.2208606
-2.467361	Fia
-1.865301	Fit	-0.7676618
-2.643453	I
-2.467361	NCCP000	-0.4656194
-2.099385	NCCS000	-0.04264812
-2.944483	NCFN000
-1.714034	NCFP000	-0.03480355
-1.60206	NCFS000	-0.2002168
-2.166332	NCMP000	-0.1233985
-1.622263	NCMS000	-0.1246515
-1.944483	NP00000	-0.201128
-2.166332	P00CN00	-0.1741127
-2.944483	PD0MP00
-2.467361	PD0MS00	-0.4751427
-2.467361	PP1CS00	-0.4756382
-2.944483	PP2CS00
-2.643453	PP3CSD0
-2.944483	PP3FPA0
-2.467361	PP3FSA0	-0.134432
-2.944483	PP3MP00
-1.99024	PR0CN00	-0.1563191
-2.944483	PT00000
-1.714034	RG	-0.1703292
-2.643453	RN
-1.281725	SP	-0.2254215
-2.944483	VMG0000
-2.944483	VMIF3S0
-2.944483	VMIP1P0
-1.90309	VMIP1S0	-0.231292
-2.944483	VMIP2P0
-2.643453	VMIP2S0
-1.99024	VMIP3P0	-0.1598075
-1.643453	VMIP3S0	-0.05356131
-2.944483	VMIS1S0
-1.714034	VMN0000	-0.08611723
-2.944483	VMP00PF
-2.467361	VMP00SF	-0.1299521
-2.643453	VMP00SM
-2.342423	VSIP3P0	-0.6777314
-1.830539	VSIP3S0	-0.4767778
-2.944483	VSM02S0
-2.643453	W
-2.467361	Z	-0.1244132
-2.643453	[??:??/2/??:??.??:??]	-0.4761331
-2.467361	a	-0.1125985
-2.944483	acerca_de
-2.944483	agregar
-2.643453	ah	-0.4761331
-2.643453	ahi	-0.4721578
-2.643453	ahora	-0.4686494
-2.944483	andar
-2.467361	anidar	-0.134432
-2.944483	asignado
-2.099385	asistente	-0.8416296
-2.944483	aun
-2.944483	autenticar
-2.944483	autom
-2.944483	automaticamente
-2.944483	automáticamente
-2.944483	año
-2.944483	backend
-2.944483	bien
-2.342423	campo	-0.09477476
-1.99024	cita	-0.9915281
-2.467361	como	-0.4661259
-2.944483	con
-2.944483	consulta
-2.166332	cuando	-0.8341026
-2.944483	dar_de_alta
-1.798355	de	-1.152775
-2.342423	deber	-0.08776177
-2.245513	decir	-0.3391088
-2.643453	dentro_de	-0.4538046
-2.944483	devolver
-2.643453	diasnodisponibles	-0.4756382
-2.944483	disponibilidad
-2.944483	disponible
-1.467361	el	-1.025947
-2.944483	ellos
-1.865301	en	-1.090627
-2.467361	encontrar	-0.1274432
-2.944483	enfocar
-2.944483	enviar
-2.166332	ese	-0.06117909
-2.944483	especial
-2.467361	estar	-0.467137
-2.643453	este	-0.4756382
-2.467361	extra	-0.4736528
-2.467361	fecha	-0.1274432
-2.944483	fechaspuedo
-2.944483	forma
-2.944483	formato
-2.944483	funcionar
-2.944483	gracia
-2.643453	gracias	-0.4721578
-2.643453	haber	-0.467137
-2.467361	hacer	-0.4686494
-2.342423	historia	-0.2900346
-2.467361	identificar	-0.1274432
-2.944483	iiiiiii
-2.944483	informacion
-2.944483	ir
-2.643453	le	-0.4761331
-2.342423	lista	-0.1549544
-2.944483	listo
-2.944483	ll_e
-2.944483	llevar
-2.342423	lo	-0.09626292
-2.944483	login
-2.643453	manda	-0.4661259
-2.944483	mandar
-2.944483	mas
-2.467361	matricular	-0.1259309
-2.467361	me	-0.134432
-2.944483	mismo
-2.944483	muy
-2.643453	médico	-0.4751427
-2.643453	no	-0.4761331
-2.467361	nombre	-0.1254256
-2.944483	nuevamente
-2.342423	numerar	-0.1604869
-2.944483	número
-2.944483	o
-2.467361	objeto	-0.1254256
-2.944483	oye
-2.944483	p_a
-2.643453	paciente	-0.4756382
-2.944483	paginar
-2.944483	par_riba
-1.99024	para	-0.9766834
-2.944483	pasar
-2.467361	poder
-2.944483	podrias
-2.342423	por	-0.1426332
-2.944483	porque
-2.944483	probar
-2.467361	prueba	-0.4686494
-2.944483	pudrir
-2.944483	página
-1.665729	que	-1.285455
-2.467361	query	-0.1254256
-2.944483	qué
-2.467361	respuesta	-0.1249197
-2.467361	resultado	-0.1329439
-2.944483	saber
-2.166332	se	-0.8421268
-2.467361	seguridad	-0.1249197
-2.944483	seguro
-1.68921	ser	-0.6751302
-2.467361	si	-0.1249197
-2.944483	simular
-2.467361	social	-0.1324467
-2.467361	string	-0.1254256
-2.944483	su
-2.944483	suficiente
-2.944483	tal_cual
-2.944483	tambien
-2.643453	también	-0.4686494
-2.944483	te
-2.467361	tener	-0.1259309
-2.944483	ticamente
-2.944483	tirar
-2.643453	todo	-0.4721578
-1.798355	uno	-1.138662
-2.643453	usar
-2.944483	usuario
-2.944483	valer
-2.166332	venir	-0.8406335
-2.944483	veo
-2.342423	ver	-0.1604869
-2.944483	verga
-1.99024	y	-0.9945371
-2.643453	ya	-0.4686494
-2.467361	¿	-0.134432

\2-grams:
-0.01848341	, Fc
-0.02020339	. </s>
-0.07918125	/ Fh
-0.5707033	1 Z
-1.021189	<s> ah
-1.021189	<s> ahi
-1.021189	<s> gracias
-1.021189	<s> también
-1.415801	<s> ver
-1.021189	<s> ¿
-0.03476211	? Fit
-0.1760913	AQ0CP00 /
-0.9386801	AQ0CS00 ,
-0.544068	AQ0CS00 para
-1.134975	CC cuando
-0.6434527	CS el
-1.041393	CS se
-0.3424227	CS ser
-0.30103	DA0FP0 fecha
-0.7925521	DA0FS0 historia
-0.996672	DA0MP0 campo
-0.996672	DA0MP0 resultado
-1.010027	DA0MS0 asistente
-1.207525	DA0MS0 objeto
-0.5950536	DI0FS0 lista
-1.093582	DI0MS0 nombre
-0.69897	DI0MS0 numerar
-1.45531	Fc como
-1.45531	Fc decir
-1.060698	Fc el
-0.39794	Fh diasnodisponibles
-0.07918125	Fit .
-0.1760913	NCCP000 ,
-0.9386801	NCCS000 .
-1.324031	NCFP000 /
-1.324031	NCFP000 en
-1.238506	NCFS000 ,
-1.041393	NCFS000 1
-1.041393	NCFS000 ?
-1.436005	NCFS000 anidar
-1.041393	NCFS000 por
-1.436005	NCFS000 social
-0.8717333	NCMP000 que
-0.8717333	NCMP000 venir
-1.021189	NCMS000 .
-1.218303	NCMS000 de
-1.415801	NCMS000 lo
-1.415801	NCMS000 string
-1.218303	NCMS000 y
-0.69897	NP00000 ,
-0.69897	NP00000 ser
-0.4771213	P00CN00 deber
-0.1760913	PD0MS00 numerar
-0.1760913	PP1CS00 poder
-0.5707033	PP3FSA0 matricular
-0.6532125	PR0CN00 se
-1.047825	PR0CN00 venir
-1.126532	RG ,
-1.324031	RG cuando
-0.9294189	RG en
-0.9294189	RG no
-0.5166298	SP el
-1.361728	SP hacer
-1.558841	SP que
-1.75634	SP query
-1.75634	SP respuesta
-1.75634	SP seguridad
-1.558841	SP uno
-0.7403627	VMIP1S0 de
-0.7403627	VMIP1S0 encontrar
-1.134975	VMIP1S0 que
-0.6532125	VMIP3P0 dentro_de
-1.047825	VMIP3P0 extra
-1.394612	VMIP3S0 cita
-1.394612	VMIP3S0 de
-1.394612	VMIP3S0 identificar
-1.394612	VMIP3S0 que
-1.324031	VMN0000 cita
-0.9294189	VMN0000 en
-1.324031	VMN0000 uno
-0.5707033	VMP00SF en
-0.39794	VSIP3P0 ?
-0.39794	VSIP3P0 el
-1.207525	VSIP3S0 cita
-0.8129134	VSIP3S0 ese
-0.3357921	VSIP3S0 uno
-0.5707033	Z ,
-0.1760913	[??:??/2/??:??.??:??] W
-0.5707033	a SP
-0.1760913	ah I
-0.1760913	ahi NP00000
-0.1760913	ahora RG
-0.5707033	anidar VMP00SF
-0.06694679	asistente NCCS000
-0.6956421	campo NCMP000
-0.04575749	cita NCFP000
-0.1760913	como CS
-0.06694679	cuando CS
-0.02996322	de SP
-0.6956421	deber VMIP3S0
-0.7925521	decir VMIP3S0
-0.39794	decir VMN0000
-0.1760913	dentro_de SP
-0.1760913	diasnodisponibles AQ0CP00
-1.373205	el DA0FP0
-0.7781513	el DA0FS0
-0.5740313	el DA0MP0
-0.3631779	el DA0MS0
-0.03476211	en SP
-0.5707033	encontrar VMN0000
-0.8717333	ese PD0MS00
-0.1760913	estar VMIP3S0
-0.1760913	este DD0MS0
-0.1760913	extra AQ0CS00
-0.5707033	fecha NCFP000
-0.1760913	gracias NP00000
-0.1760913	haber VMIP3S0
-0.1760913	hacer VMN0000
-0.30103	historia NCFS000
-0.5707033	identificar VMN0000
-0.1760913	le PP3CSD0
-0.4981436	lista NCFS000
-0.6956421	lo PP3FSA0
-0.1760913	manda NCFS000
-0.5707033	matricular VMIP3S0
-0.5707033	me PP1CS00
-0.1760913	médico AQ0MS00
-0.1760913	no RN
-0.5707033	nombre NCMS000
-0.4981436	numerar VMIP1S0
-0.5707033	objeto NCMS000
-0.1760913	paciente NCCP000
-0.04575749	para SP
-0.4981436	por SP
-0.1760913	prueba NCFP000
-0.30103	que CS
-0.3467875	que PR0CN00
-0.5707033	query NCMS000
-0.5707033	respuesta NCFS000
-0.5707033	resultado NCMP000
-0.06694679	se P00CN00
-0.5707033	seguridad NCFS000
-1.151356	ser VSIP3P0
-0.1413292	ser VSIP3S0
-0.5707033	si CS
-0.5707033	social AQ0CS00
-0.5707033	string NCMS000
-0.1760913	también RG
-0.5707033	tener VMIP3S0
-0.1760913	todo DI0MS0
-0.447158	uno DI0FS0
-0.243038	uno DI0MS0
-0.06694679	venir VMIP3P0
-0.4981436	ver VMIP1S0
-0.04575749	y CC
-0.1760913	ya RG
-0.5707033	¿ Fia

\end\
