
\data\
ngram 1=209
ngram 2=158

\1-grams:
-2.511717	!
-2.288369	"	-0.7162855
-1.626653	,	-1.017316
-1.842066	.	-0.8412242
-2.511717	/	-0.1142254
-2.446619	1	-0.1051815
-2.446619	2	-1.780379
-2.511717	234	-0.1051815
-2.446619	3	-1.780379
-2.446619	45	-0.1051815
-2.511717	65	-0.1051815
-2.446619	8080	-0.1051815
-2.511717	9	-0.1051815
-2.511717	</s>
-99	<s>	-0.07373259
-2.010246	?	-0.5401942
-2.511717	AQ0CP00
-2.446619	AQ0CS00
-2.511717	AQ0FS00
-2.127414	AQ0MS00
-2.511717	CC
-2.127414	CS	-0.1085457
-2.511717	DA0FP0	-0.08232628
-2.511717	DA0FS0	-0.2702532
-2.511717	DA0MP0	-0.05239377
-2.511717	DA0MS0	-0.03060371
-2.511717	DD0FS0
-2.511717	DD0MS0	-1.789206
-2.511717	DI0FP0	-0.101053
-2.511717	DI0FS0
-2.446619	DI0MS0
-2.511717	DP3CSN
-2.511717	Fat
-2.511717	Fc	-0.1376738
-2.511717	Fe	-0.1948838
-2.511717	Fh	-0.1133228
-2.511717	Fia	-0.2393947
-2.511717	Fit	-0.3784021
-2.511717	H1
-2.511717	I
-2.511717	NCCN000
-2.511717	NCCS000
-2.446619	NCFP000	-0.3236879
-1.549095	NCFS000	-0.1373942
-2.288369	NCMP000	-0.05521019
-1.400227	NCMS000	-0.290915
-1.777407	NP00000	-0.1920896
-2.511717	P00CN00	-1.788521
-2.511717	PD00S00
-2.446619	PD0MS00
-2.511717	PP1CS00	-0.2918137
-2.511717	PP2CS00
-2.511717	PP3CSD0
-2.511717	PP3FSA0	-1.7865
-2.511717	PP3MSA0
-2.511717	PR0CN00	-0.342806
-2.511717	PT00000
-2.511717	QWE123RTY345	-1.780379
-2.511717	QWE123TRY345
-1.777407	RG	-0.1054257
-2.511717	RN
-1.777407	SP	-0.2253332
-2.511717	VAIP1P0
-2.446619	VMG0000
-2.446619	VMIF3S0
-1.721138	VMIP1S0	-0.1606136
-2.511717	VMIP2P0	-1.780379
-2.511717	VMIP2S0	-0.2301203
-2.446619	VMIP3P0
-2.010246	VMIP3S0	-0.10809
-2.511717	VMIS1S0
-2.511717	VMIS3S0
-2.511717	VMM02S0
-1.514959	VMN0000	-0.2068562
-2.511717	VMP00PF
-2.511717	VMP00SF
-2.511717	VMP00SM
-2.446619	VMSP3P0
-2.446619	VMSP3S0
-2.511717	VSIP3P0	-0.4619431
-2.511717	VSIP3S0	-0.2465666
-1.626653	Z	-0.2104448
-2.288369	a	-0.3301012
-2.511717	ahora
-2.511717	alguno
-2.511717	anidar
-2.446619	api	-0.1031222
-2.511717	aprovechar
-2.511717	asegurar
-2.511717	asignado
-2.446619	asistente	-1.789423
-2.511717	aun
-2.446619	autenticar	-0.4498064
-2.511717	automaticamente
-2.511717	ayudar
-2.288369	b	-0.4041522
-2.511717	búsqueda
-2.511717	cambiar
-2.446619	campo	-0.08142366
-2.511717	casi
-2.511717	cita
-2.511717	claro
-2.446619	como	-0.2372522
-2.511717	con	-0.1082524
-2.511717	consulta
-2.511717	consultar
-2.288369	cuando	-0.1123135
-2.511717	cómo
-2.511717	dar
-2.446619	dato
-1.842066	de	-0.5853736
-2.288369	deber	-0.3186607
-2.511717	decir
-2.511717	dentro_de
-2.446619	desarrollar	-1.777287
-2.511717	desarrollo	-0.09793055
-2.511717	duda
-1.483312	el	-0.6220673
-2.127414	en	-0.2331912
-2.511717	enfocar
-2.511717	enviar	-0.1020888
-2.511717	error
-2.446619	ese
-2.127414	estar	-0.2897927
-2.446619	este	-0.2927164
-2.511717	estándar
-2.511717	extra
-2.511717	fecha
-2.511717	formato
-2.511717	gracias
-2.446619	hacer
-2.446619	historia	-0.3964774
-2.511717	identificar
-2.511717	imaginar
-2.511717	ip	-1.78345
-2.511717	j_son
-2.511717	key	-0.09793055
-2.511717	la_ip
-2.511717	le
-2.511717	lista
-2.511717	listo
-2.446619	lo	-0.4619431
-2.511717	login
-2.511717	mandar
-2.511717	mando
-2.127414	me	-0.2391642
-2.446619	mirar	-1.789423
-2.511717	mismo
-2.446619	médico	-1.787511
-2.511717	necesario
-2.511717	necesitar
-2.288369	no	-0.1142254
-2.511717	nombre
-2.446619	numerar	-1.782429
-2.511717	objeto
-2.511717	otorgar
-2.511717	par
-1.918065	para	-0.5342212
-2.511717	petición	-0.1140085
-2.288369	poder
-2.446619	por	-1.78345
-2.511717	postman
-2.511717	pregunta
-2.511717	preguntar
-2.511717	puerto	-0.09793055
-1.626653	que	-0.6945412
-2.511717	quedar
-2.511717	question
-2.511717	raw_post	-0.09793055
-2.511717	raw_pre	-0.1082524
-2.511717	recurso
-2.511717	regresar	-1.7865
-2.511717	respetar
-2.511717	respuesta
-2.511717	rest	-1.78345
-2.511717	resultado
-2.446619	saber	-1.777287
-2.446619	se	-1.789423
-2.511717	seguridad
-2.010246	ser	-0.4139124
-2.511717	serio
-2.511717	servicio	-0.09793055
-2.127414	si	-0.3341622
-2.511717	simular
-2.511717	sobre
-2.511717	social
-2.446619	su	-1.789423
-2.511717	suficiente	-1.789423
-2.511717	sugerir
-2.511717	sí
-2.511717	tambien
-2.511717	también	-0.1082524
-2.288369	te	-0.1142254
-2.446619	teneis	-1.789423
-2.446619	tener	-0.2391642
-2.511717	terminar
-2.511717	todo	-0.1142254
-2.446619	ultimar
-2.446619	uno	-0.08210938
-2.288369	url	-0.1082524
-2.511717	usar	-0.1020888
-2.446619	usuario	-0.09793055
-2.511717	vaciar
-2.446619	venir	-1.789206
-2.511717	veo
-2.511717	ver
-2.288369	y	-0.1738376
-2.511717	ya
-2.288369	¿	-0.4152554

\2-grams:
-0.09236901	" Fe
-0.0437334	, Fc
-0.06737074	. </s>
-0.6314622	/ Fh
-0.6314622	1 Z
-0.007088621	2 Z
-0.6314622	234 Z
-0.007088621	3 Z
-0.6314622	45 Z
-0.6314622	65 Z
-0.6314622	8080 Z
-0.6314622	9 Z
-0.9101786	<s> si
-1.358461	<s> ¿
-0.1471462	? Fit
-1.153217	CS ,
-1.216478	CS el
-1.601499	CS enviar
-1.015649	CS ser
-1.601499	CS usar
-0.7564009	DA0FP0 petición
-0.5684907	DA0FS0 historia
-0.7060586	DA0FS0 ip
-0.9324922	DA0MP0 campo
-1.433095	DA0MS0 puerto
-1.433095	DA0MS0 servicio
-0.007088621	DD0MS0 api
-0.6314622	DI0FP0 el
-1.149531	Fc el
-1.08627	Fc tener
-1.149531	Fc y
-1.08627	Fc ¿
-0.5108733	Fe "
-1.233522	Fe raw_post
-0.6314622	Fh b
-0.9324922	Fia como
-0.4842099	Fia el
-0.2309085	Fit .
-0.8533109	NCFP000 con
-0.4050286	NCFP000 de
-1.131048	NCFS000 ,
-1.067786	NCFS000 .
-1.067786	NCFS000 1
-1.516069	NCFS000 key
-1.516069	NCFS000 raw_pre
-0.8533109	NCMP000 que
-1.631462	NCMS000 "
-1.246441	NCMS000 ,
-1.18318	NCMS000 8080
-1.18318	NCMS000 ?
-1.18318	NCMS000 QWE123RTY345
-1.18318	NCMS000 b
-1.246441	NCMS000 que
-1.18318	NCMS000 rest
-1.18318	NCMS000 y
-0.8521867	NP00000 ?
-0.8521867	NP00000 de
-1.300469	NP00000 ser
-1.300469	NP00000 también
-0.007088621	P00CN00 deber
-0.3081186	PP1CS00 deber
-0.007088621	PP3FSA0 ?
-0.5511566	PR0CN00 el
-0.5511566	PR0CN00 regresar
-0.007088621	QWE123RTY345 Z
-1.233522	RG "
-0.7852399	RG tener
-1.672855	SP desarrollo
-0.5789495	SP el
-1.672855	SP este
-1.672855	SP que
-1.224573	SP uno
-1.224573	SP usuario
-0.7852399	VMIP1S0 ,
-0.7852399	VMIP1S0 autenticar
-0.007088621	VMIP2P0 que
-0.37138	VMIP2S0 que
-0.6091486	VMIP3S0 el
-1.47656	VMN0000 a
-1.091539	VMN0000 el
-1.028278	VMN0000 lo
-1.028278	VMN0000 para
-1.028278	VMN0000 que
-1.47656	VMN0000 todo
-0.1831799	VSIP3P0 suficiente
-0.6603011	VSIP3S0 45
-0.6603011	VSIP3S0 uno
-0.8466654	Z ,
-1.569314	Z .
-1.569314	Z /
-1.569314	Z 234
-1.569314	Z 65
-1.569314	Z 9
-1.121032	Z para
-1.121032	Z ser
-0.2674607	a SP
-0.6314622	api NCFS000
-0.007088621	asistente NCCS000
-0.1831799	autenticar VMN0000
-0.2098433	b NCFS000
-0.7564009	campo NCMP000
-0.37138	como CS
-0.6314622	con SP
-0.6314622	cuando CS
-0.1281091	de SP
-0.8533109	deber VMIP1S0
-0.4050286	deber VMIP3S0
-0.007088621	desarrollar VMN0000
-0.6314622	desarrollo NCMS000
-1.360385	el DA0FP0
-0.7045228	el DA0FS0
-1.022757	el DA0MP0
-0.3683246	el DA0MS0
-0.37138	en SP
-0.6314622	enviar VMN0000
-0.3081186	estar VMIP3S0
-0.3081186	este DD0MS0
-0.4842099	historia NCFP000
-0.5474712	historia NCFS000
-0.007088621	ip NP00000
-0.6314622	key NCMS000
-0.1831799	lo PP3FSA0
-0.37138	me PP1CS00
-0.007088621	mirar VMM02S0
-0.007088621	médico AQ0MS00
-0.6314622	no RN
-0.007088621	numerar VMIP1S0
-0.1471462	para SP
-0.6314622	petición NCFP000
-0.007088621	por SP
-0.6314622	puerto NCMS000
-0.2249786	que CS
-0.6895464	que PR0CN00
-0.6314622	raw_post NCMS000
-0.6314622	raw_pre RG
-0.007088621	regresar VMIP3S0
-0.007088621	rest NP00000
-0.007088621	saber VMN0000
-0.007088621	se P00CN00
-1.233522	ser VSIP3P0
-0.2530478	ser VSIP3S0
-0.6314622	servicio NCMS000
-0.2674607	si CS
-0.007088621	su DP3CSN
-0.007088621	suficiente AQ0CP00
-0.6314622	también RG
-0.6314622	te PP2CS00
-0.007088621	teneis VMIP2P0
-0.37138	tener VMIP2S0
-0.6314622	todo DI0FP0
-0.7564009	uno DI0MS0
-0.6314622	url NP00000
-0.6314622	usar VMN0000
-0.6314622	usuario NCMS000
-0.007088621	venir VMIP3P0
-0.614418	y CC
-0.999439	y NP00000
-0.2098433	¿ Fia

\end\
