
\data\
ngram 1=211
ngram 2=252

\1-grams:
-2.400222	"	-0.4137046
-1.703569	,	-1.303006
-1.662229	.	-1.379846
-2.400222	/	-0.6567426
-2.537993	1	-0.1492304
-2.462626	2	-0.4123707
-2.537993	3
-2.537993	</s>
-99	<s>	-0.1737378
-1.749262	?	-1.154067
-2.462626	AQ0CN00
-2.400222	AQ0CP00	-0.172156
-2.400222	AQ0CS00	-0.3911133
-2.462626	AQ0FS00	-0.08817933
-2.537993	AQ0MS00	-0.06757973
-2.537993	CC	-0.295571
-2.100639	CS	-0.3974755
-2.537993	DA0FP0	-0.1959848
-2.537993	DA0FS0	-0.244679
-2.537993	DA0MP0	-0.4847173
-2.537993	DA0MS0	-0.2306638
-2.462626	DD0FS0
-2.537993	DD0MS0	-0.1484203
-2.537993	DI0FS0	-0.4499216
-2.462626	DI0MS0	-0.1381136
-2.537993	Fc	-0.2175933
-2.537993	Fe	-0.06757973
-2.537993	Fh	-0.1459004
-2.537993	Fia
-2.537993	Fit	-0.6219514
-2.537993	I	-0.1896784
-2.462626	NCCP000	-0.09848393
-2.400222	NCCS000	-0.07805531
-2.225095	NCFP000	-0.1311467
-1.557607	NCFS000	-0.2020615
-2.100639	NCMP000	-0.4364145
-1.425091	NCMS000	-0.2167066
-1.499667	NP00000	-0.09271306
-2.537993	P00CN00	-0.1376083
-2.537993	PD0FS00
-2.537993	PD0MS00
-2.537993	PI0MS00	-0.143144
-2.537993	PP1CP00	-0.1505644
-2.537993	PP1CS00	-0.4137046
-2.537993	PP2CS00	-0.06671716
-2.537993	PP3CSD0	-0.1492304
-2.537993	PP3FPA0	-0.2865884
-2.537993	PP3FSA0	-0.2887658
-2.537993	PP3MSA0
-2.537993	PR0CN00	-0.3354372
-2.537993	PT00000
-1.703569	RG	-0.07381871
-2.537993	RN
-2.537993	SHA1
-1.858222	SP	-0.4853432
-2.400222	VMIP1P0	-0.1378345
-1.800334	VMIP1S0	-0.2790879
-2.537993	VMIP2S0
-2.225095	VMIP3P0	-0.4122169
-1.662229	VMIP3S0	-0.09832953
-2.537993	VMM02P0
-2.537993	VMM02S0	-0.1396273
-1.749262	VMN0000	-0.1719422
-2.537993	VMP00PF
-2.462626	VMP00SF	-0.4915813
-2.400222	VMP00SM
-2.537993	VMSP2S0
-2.537993	VSIP3P0	-0.3464659
-2.537993	VSIP3S0	-0.1644035
-2.225095	Z	-0.3455912
-2.537993	a
-2.462626	aca	-0.09361282
-2.537993	acabar
-2.537993	además_de
-2.462626	ah	-0.3417051
-2.537993	ah_ok
-2.537993	ahi
-2.462626	ahora	-0.143144
-2.537993	alguno
-2.537993	angular	-0.1378582
-2.537993	anidar	-0.6565034
-2.537993	anterior	-0.150093
-2.462626	api	-0.2778288
-2.537993	aquí
-2.537993	asignar
-2.462626	asistente	-0.5893245
-2.537993	aun
-2.537993	autentificar
-2.537993	automáticamente	-0.143144
-2.462626	b	-0.1396273
-2.537993	backend	-0.135191
-2.537993	bajar
-2.462626	bien	-0.2813454
-2.537993	cadena
-2.462626	campo	-0.5462083
-2.537993	casi
-2.462626	cita	-0.5092806
-2.400222	como	-0.6545444
-2.537993	componente
-2.537993	con
-2.537993	consutla
-2.462626	cuando	-0.4115064
-2.537993	dato
-1.749262	de	-1.187054
-2.225095	deber	-0.3983193
-2.537993	debousar
-2.462626	decidir	-0.150093
-2.537993	decir	-0.1422675
-2.537993	dentro_de	-0.5849944
-2.537993	diasnodisponibles	-0.150093
-2.462626	disponible	-0.150093
-1.557607	el	-0.9013979
-1.800334	en	-1.107873
-2.462626	encabezado	-0.0916538
-2.537993	encabezar
-2.462626	encripción	-0.1396273
-2.537993	encriptar
-2.537993	enfocar
-2.537993	enlace
-2.537993	entonces
-2.537993	envia
-2.462626	enviar	-0.2865884
-2.225095	ese	-0.3038997
-2.537993	especial	-0.4132332
-2.537993	estan
-2.462626	este
-2.462626	extra	-0.3525403
-2.537993	facilitar	-0.1422675
-2.462626	fecha	-0.4123707
-2.537993	fechallevan
-2.462626	forma	-0.1396273
-2.400222	formato	-0.6993612
-2.462626	funcionar	-0.4054077
-2.537993	gracia
-2.537993	haber
-2.462626	hacer
-2.462626	historia	-0.3613782
-2.537993	http
-2.537993	identificar	-0.1440187
-2.537993	imaginar	-0.4080319
-2.537993	ir
-2.462626	j_son	-0.1396273
-2.537993	key	-0.135191
-2.537993	la
-2.537993	le	-0.1505644
-2.537993	liga
-2.537993	lista	-0.7037975
-2.537993	listar
-2.462626	llamar	-0.08730636
-2.537993	llevar	-0.2874319
-2.400222	lo	-0.3413795
-2.537993	login
-2.537993	manda
-2.225095	mandar	-0.1270654
-2.537993	mando
-2.537993	manejo	-0.135191
-2.537993	matricular	-0.2804689
-2.400222	me	-0.4137046
-2.462626	medicar	-0.1448917
-2.400222	mismo	-0.293134
-2.462626	muy	-0.08643162
-2.462626	no	-0.2887658
-2.537993	nombre	-0.135191
-2.537993	nos	-0.1505644
-2.400222	numerar	-0.2830931
-2.537993	número
-2.537993	objeto	-0.6993612
-2.462626	paciente	-0.4134654
-1.925031	para	-0.9829344
-2.537993	perfecto
-2.537993	podria
-2.462626	por	-0.2839644
-2.462626	porque	-0.1483661
-2.537993	post
-2.537993	postman
-2.537993	probar
-2.537993	proyecto	-0.1483661
-1.703569	que	-1.08693
-2.537993	query	-0.2733925
-2.537993	qué
-2.537993	raw_post
-2.537993	raw_pre
-2.462626	recurso	-0.135191
-2.537993	respuesta	-0.7037975
-2.537993	resultado	-0.7125363
-2.537993	saber
-2.100639	se	-0.7402921
-2.537993	seguridad
-2.537993	seguro
-1.925031	ser	-0.8103808
-2.537993	seriar	-0.1505644
-2.400222	si	-0.2910196
-2.537993	simular
-2.462626	social	-0.150093
-2.537993	string	-0.2733925
-2.462626	tal_cual	-0.2813454
-2.537993	tambien
-2.537993	también
-2.400222	te	-0.4137046
-2.462626	tener	-0.1488278
-2.537993	terminar
-2.004019	uno	-0.6864403
-2.225095	usar	-0.2970948
-2.537993	usuario
-2.462626	venir	-0.79695
-2.462626	veo	-0.4979084
-2.400222	ver	-0.7090619
-2.100639	y	-0.594164
-2.400222	ya	-0.08643162
-2.537993	ysu
-2.537993	¿

\2-grams:
-0.2108587	" Fe
-0.02210672	, Fc
-0.01844453	. </s>
-0.1077855	/ Fh
-0.5301454	1 Z
-0.2108587	2 Z
-0.9187201	<s> ah
-1.797317	<s> el
-1.403401	<s> ese
-1.797317	<s> muy
-1.177001	<s> si
-1.177001	<s> veo
-1.403401	<s> ver
-0.03148504	? Fit
-0.6133501	AQ0CP00 /
-1.007267	AQ0CP00 de
-0.9143801	AQ0CS00 ,
-0.9143801	AQ0CS00 .
-0.4296996	AQ0CS00 para
-0.7062367	AQ0FS00 en
-0.8311754	AQ0MS00 formato
-1.183358	CC cuando
-0.7894413	CC se
-0.5630413	CC ver
-0.6472889	CS el
-1.852365	CS funcionar
-1.852365	CS lo
-0.9737676	CS se
-0.603655	CS ser
-1.852365	CS seriar
-0.4372588	DA0FP0 fecha
-0.3638247	DA0FS0 historia
-0.4906961	DA0MP0 campo
-1.530145	DA0MP0 encabezado
-0.4906961	DA0MP0 resultado
-1.691513	DA0MS0 api
-0.9231327	DA0MS0 asistente
-1.691513	DA0MS0 backend
-1.691513	DA0MS0 formato
-1.691513	DA0MS0 manejo
-0.6520641	DA0MS0 objeto
-0.5341688	DD0MS0 mismo
-0.1896661	DI0FS0 lista
-0.6501914	DI0MS0 formato
-1.270508	DI0MS0 nombre
-0.9520963	Fc como
-1.720477	Fc decir
-0.6810278	Fc el
-1.720477	Fc tal_cual
-1.720477	Fc te
-1.32656	Fc y
-0.8311754	Fe "
-1.074214	Fh diasnodisponibles
-0.6802968	Fh y
-0.1531708	Fit .
-1.177621	Fit ser
-0.4372588	I ?
-0.9280854	NCCP000 ,
-0.9280854	NCCP000 .
-0.7382888	NCCS000 .
-0.8765915	NCFP000 /
-0.8765915	NCFP000 llevar
-0.718238	NCFS000 ,
-1.82018	NCFS000 1
-1.82018	NCFS000 2
-0.853752	NCFS000 anidar
-1.82018	NCFS000 en
-1.82018	NCFS000 key
-1.82018	NCFS000 se
-1.551335	NCMP000 anterior
-0.5118854	NCMP000 que
-0.5118854	NCMP000 venir
-1.094203	NCMS000 .
-1.468667	NCMS000 ?
-1.862584	NCMS000 aca
-0.8231346	NCMS000 de
-1.862584	NCMS000 deber
-1.862584	NCMS000 en
-1.242267	NCMS000 especial
-1.468667	NCMS000 lo
-1.862584	NCMS000 se
-1.468667	NCMS000 string
-1.862584	NCMS000 y
-1.250172	NP00000 ,
-1.644089	NP00000 2
-1.644089	NP00000 de
-1.250172	NP00000 el
-1.644089	NP00000 en
-1.644089	NP00000 funcionar
-1.644089	NP00000 que
-1.250172	NP00000 tener
-0.7227421	P00CN00 deber
-1.343059	P00CN00 le
-1.343059	P00CN00 nos
-0.5301454	PI0MS00 que
-0.5301454	PP1CP00 facilitar
-0.2108587	PP1CS00 imaginar
-0.8311754	PP2CS00 mandar
-0.5301454	PP3CSD0 mandar
-0.3077688	PP3FPA0 ?
-0.3123201	PP3FSA0 matricular
-1.343059	PR0CN00 usar
-0.3036095	PR0CN00 venir
-1.507869	RG bien
-1.507869	RG cuando
-1.507869	RG de
-1.507869	RG me
-1.507869	RG no
-1.507869	RG paciente
-2.080374	SP angular
-0.4998194	SP el
-1.460057	SP enviar
-2.080374	SP paciente
-2.080374	SP proyecto
-1.040924	SP que
-1.686457	SP query
-1.040924	SP respuesta
-0.9238106	SP uno
-1.007267	VMIP1P0 en
-1.007267	VMIP1P0 uno
-1.007267	VMIP1P0 usar
-1.250172	VMIP1S0 de
-1.250172	VMIP1S0 el
-0.4875256	VMIP1S0 que
-1.644089	VMIP1S0 uno
-1.250172	VMIP1S0 usar
-0.6515483	VMIP3P0 dentro_de
-0.5637174	VMIP3P0 extra
-0.9098288	VMIP3P0 uno
-1.196927	VMIP3S0 ,
-1.590843	VMIP3S0 cita
-1.196927	VMIP3S0 de
-1.590843	VMIP3S0 el
-1.590843	VMIP3S0 identificar
-1.590843	VMIP3S0 llamar
-1.590843	VMIP3S0 por
-1.590843	VMIP3S0 que
-0.5301454	VMM02S0 el
-1.530145	VMN0000 automáticamente
-1.530145	VMN0000 el
-1.530145	VMN0000 ese
-0.9098288	VMN0000 lo
-0.9098288	VMN0000 para
-1.530145	VMN0000 post
-0.1657774	VMP00SF en
-0.2536083	VSIP3P0 ?
-0.9143801	VSIP3S0 cita
-1.308297	VSIP3S0 ese
-1.308297	VSIP3S0 que
-0.9143801	VSIP3S0 uno
-0.2536083	Z ,
-0.7062367	aca AQ0FS00
-0.4538968	ah I
-0.6802968	ah NP00000
-0.5301454	ahora RG
-0.5301454	angular NP00000
-0.1077855	anidar VMP00SF
-0.5301454	anterior AQ0CP00
-0.3123201	api NCFS000
-0.1286696	asistente NCCS000
-0.5301454	automáticamente RG
-0.5301454	b NCFS000
-0.5301454	backend NCMS000
-0.3123201	bien RG
-0.1439086	campo NCMP000
-0.1597047	cita NCFP000
-0.1077855	como CS
-0.2108587	cuando CS
-0.02877233	de SP
-0.5118887	deber VMIP1S0
-0.5118887	deber VMIP3S0
-0.5301454	decidir VMIP1P0
-0.5301454	decir VMIP3S0
-0.1286696	dentro_de SP
-0.5301454	diasnodisponibles AQ0CP00
-0.5301454	disponible AQ0CP00
-1.408139	el DA0FP0
-0.9890066	el DA0FS0
-0.5330734	el DA0MP0
-0.3606162	el DA0MS0
-2.028456	el NP00000
-0.03476283	en SP
-0.7062367	encabezado NCMP000
-0.5301454	encripción NCFS000
-0.3077688	enviar VMN0000
-1.132205	ese DD0FS0
-0.3638247	ese DD0MS0
-0.2108587	especial AQ0CS00
-0.2536083	extra AQ0CS00
-0.5301454	facilitar VMIP3S0
-0.2108587	fecha NCFP000
-0.5301454	forma NCFS000
-0.09275611	formato NCMS000
-0.2108587	funcionar VMIP3S0
-0.2388859	historia NCFS000
-0.5301454	identificar VMN0000
-0.2108587	imaginar VMIP1S0
-0.5301454	j_son NCFS000
-0.5301454	key NCMS000
-0.5301454	le PP3CSD0
-0.09275611	lista NCFS000
-0.7062367	llamar VMN0000
-0.3123201	llevar VMIP3P0
-0.4149772	lo PP3FPA0
-0.7894413	lo PP3FSA0
-1.007267	mandar VMIP1S0
-1.007267	mandar VMIP3S0
-1.007267	mandar VMN0000
-0.5301454	manejo NCMS000
-0.3123201	matricular VMIP3S0
-0.2108587	me PP1CS00
-0.5301454	medicar VMIP1S0
-0.3077688	mismo AQ0MS00
-0.7062367	muy RG
-0.3123201	no RN
-0.5301454	nombre NCMS000
-0.5301454	nos PP1CP00
-0.3123201	numerar VMIP1S0
-0.09275611	objeto NCMS000
-0.2108587	paciente NCCP000
-0.04699755	para SP
-0.3123201	por SP
-0.5301454	porque CS
-0.5301454	proyecto NCMP000
-0.2094277	que CS
-0.5205418	que PR0CN00
-0.3123201	query NCMS000
-0.5301454	recurso NCMS000
-0.09275611	respuesta NCFS000
-0.09275611	resultado NCMP000
-0.08688628	se P00CN00
-0.4906961	ser VSIP3P0
-0.2814357	ser VSIP3S0
-0.5301454	seriar VMM02S0
-0.38695	si CS
-1.007267	si NP00000
-0.5301454	social AQ0CS00
-0.3123201	string NCMS000
-0.3123201	tal_cual RG
-0.2108587	te PP2CS00
-0.8311754	tener VMIP1P0
-0.8311754	tener VMIP2S0
-0.4149749	uno DI0FS0
-0.4149749	uno DI0MS0
-1.571538	uno PI0MS00
-1.132205	usar VMIP1P0
-0.3638247	usar VMN0000
-0.07502627	venir VMIP3P0
-0.1597047	veo NP00000
-0.09275611	ver VMIP1S0
-0.1271734	y CC
-0.7062367	ya RG

\end\
