
\data\
ngram 1=108
ngram 2=62

\1-grams:
-1.642217	,	-1.220436
-1.591065	.	-1.267473
-1.767156	2	-1.104563
-1.591065	</s>
-99	<s>	-0.4696333
-2.846337	?
-2.846337	AQ0CN00
-1.732394	AQ0CP00	-1.136748
-2.846337	AQ0CS00
-2.846337	AQ0MS00
-2.545307	Angular2	-0.07653426
-2.846337	CC
-1.615888	CS	-0.4652627
-2.846337	DA00S0
-2.846337	DA0FP0
-2.244277	DA0FS0
-2.846337	DA0MP0
-2.545307	DA0MS0
-2.846337	DD0MS0
-1.943247	DI0FS0	-0.8981124
-2.068186	DI0MS0	-0.7750469
-1.642217	Fc	-0.7176183
-2.846337	Fit
-2.545307	NCCS000
-2.846337	NCFP000
-1.567584	NCFS000	-0.3566958
-1.642217	NCMP000	-0.7627328
-1.700209	NCMS000	-0.2871876
-1.615888	NP00000	-0.4403846
-2.846337	P00CN00
-1.732394	PI0MS00	-1.12716
-1.670246	PP2CS00	-0.6908521
-2.846337	PP3CPD0
-2.846337	PP3MPA0
-1.767156	PP3MSA0	-1.106455
-1.700209	PR0CN00	-1.137379
-2.846337	SHA1
-1.147367	SP	-0.6433268
-2.846337	VMG0000
-1.399179	VMIP1P0	-1.119335
-1.670246	VMIP1S0	-0.556998
-2.846337	VMIP2S0
-2.846337	VMIP3P0
-2.846337	VMIP3S0
-2.846337	VMM02P0
-2.068186	VMN0000	-0.01678018
-2.846337	VMP00SF
-1.767156	VMSP2S0	-1.102662
-1.670246	Z	-1.166078
-2.545307	a	-0.05382512
-2.001239	aca	-0.8802271
-2.846337	además_de
-1.767156	angular	-0.16321
-1.732394	anterior	-1.13801
-2.846337	api
-2.147367	aqui	-0.7675048
-2.846337	aquí
-2.846337	asistente
-2.846337	b_t
-1.767156	bajar	-1.106455
-2.846337	cadena
-2.846337	comentar
-2.846337	componente
-2.846337	con
-1.670246	de	-1.172031
-2.846337	deber
-2.846337	descargue
-1.892095	el	-0.2839007
-1.670246	en	-1.172031
-2.846337	encriptacion
-2.846337	encriptación
-2.846337	encriptar
-2.147367	enlace	-0.7694026
-2.846337	enviar
-2.846337	ese
-2.846337	especial
-2.846337	fecha
-2.545307	formato	-0.07716596
-2.846337	funcionar
-2.545307	hacer
-2.545307	ir
-2.846337	key
-2.846337	le
-1.943247	liga	-0.9423261
-2.846337	llevar
-1.732394	lo	-1.106455
-1.732394	mandar	-0.803533
-2.846337	mismo
-2.846337	oie
-2.846337	ok
-1.642217	para	-1.198359
-2.846337	pasar
-1.700209	proyecto	-1.166078
-1.369216	que	-1.471748
-2.846337	queria
-2.846337	se
-2.846337	si
-2.846337	t_ye
-1.670246	te	-1.19474
-2.846337	temando
-1.700209	tener	-1.128451
-2.846337	tnemos
-1.414973	uno	-0.8190038
-1.700209	usar	-1.128451
-2.846337	valinees
-2.846337	ver
-2.846337	y
-2.846337	ya_tienes_algun

\2-grams:
-0.02632894	, Fc
-0.0234811	. </s>
-0.03476211	2 Z
-0.4101745	<s> aca
-0.5563025	<s> aqui
-0.03218468	AQ0CP00 de
-0.7459666	Angular2 Z
-1.675385	CS el
-0.1890562	CS lo
-0.05799195	DI0FS0 liga
-0.07918125	DI0MS0 enlace
-0.09017663	Fc te
-0.3756636	NCFS000 para
-0.8016323	NCFS000 tener
-1.649057	NCMP000 .
-0.09017663	NCMP000 anterior
-0.8319366	NCMS000 2
-0.447158	NCMS000 para
-0.9162575	NP00000 2
-0.2762064	NP00000 tener
-0.03218468	PI0MS00 que
-0.09691001	PP2CS00 mandar
-0.03476211	PP3MSA0 bajar
-0.03218468	PR0CN00 usar
-2.143907	SP Angular2
-0.6197888	SP angular
-2.143907	SP el
-0.5850267	SP proyecto
-0.552842	SP que
-0.3332147	VMIP1P0 en
-0.3332147	VMIP1P0 uno
-0.1346986	VMIP1S0 uno
-1.223088	VMN0000 para
-0.03476211	VMSP2S0 .
-0.02996322	Z ,
-0.7459666	a SP
-0.4259687	aca NCFS000
-0.30103	aca NP00000
-0.7649898	angular NCMS000
-0.7649898	angular NP00000
-0.03218468	anterior AQ0CP00
-0.07918125	aqui NP00000
-0.03476211	bajar VMSP2S0
-0.02802872	de SP
-0.3521825	el DA0FS0
-1.399179	el DA0MS0
-0.02802872	en SP
-0.07918125	enlace NCMS000
-0.7459666	formato NCMS000
-0.05115252	liga NCFS000
-0.03476211	lo PP3MSA0
-0.07255067	mandar VMIP1S0
-0.02632894	para SP
-0.02996322	proyecto NCMP000
-0.2872417	que CS
-0.3452336	que PR0CN00
-0.02802872	te PP2CS00
-0.03218468	tener VMIP1P0
-0.5282738	uno DI0FS0
-1.117172	uno DI0MS0
-0.3174204	uno PI0MS00
-0.03218468	usar VMIP1P0

\end\
